{"type":"NeuralNetwork","sizes":[1,16,16,1],"layers":[{"weights":[],"biases":[]},{"weights":[[2.870054244995117],[0.7488091588020325],[3.584420919418335],[4.35114049911499],[-3.1267781257629395],[-0.7964597344398499],[-4.810055255889893],[2.8286080360412598],[1.9393610954284668],[4.952826976776123],[-4.424687385559082],[-2.4933600425720215],[-3.174744129180908],[4.856111526489258],[2.8109591007232666],[-3.250068187713623]],"biases":[-0.8943998217582703,-0.11105767637491226,-1.0179409980773926,-1.0533397197723389,1.967837929725647,0.19001096487045288,3.207771062850952,-0.6035979986190796,-0.47242575883865356,-2.0713319778442383,3.147609233856201,1.3859800100326538,1.67194402217865,-1.3010612726211548,-0.7237542867660522,2.073903799057007]},{"weights":[[-0.27194327116012573,-0.10337372124195099,-0.34634894132614136,-0.4889359772205353,-0.030282432213425636,-0.02980310283601284,-0.010955258272588253,-0.13461750745773315,-0.0645703375339508,-0.6642017364501953,0.11744368076324463,-0.2804059386253357,0.08963187783956528,-0.39787471294403076,-0.11632969975471497,-0.1327742040157318],[0.522840142250061,-0.16553927958011627,0.5250166654586792,0.47817566990852356,-1.1087965965270996,-0.24158252775669098,-1.4262298345565796,0.30557921528816223,0.05288258567452431,0.7920445203781128,-1.3637961149215698,-0.827653706073761,-1.0951346158981323,0.3124115467071533,0.14994363486766815,-0.9525046348571777],[0.7444168925285339,-0.364803671836853,1.0977582931518555,0.7614457011222839,-2.785738468170166,-0.9844026565551758,-3.9379348754882812,0.5111956000328064,0.26208046078681946,2.116753101348877,-3.841163158416748,-2.2319374084472656,-2.521312713623047,0.9951046705245972,0.2951212227344513,-2.9259417057037354],[-1.0984375476837158,0.3730841279029846,-1.3592132329940796,-1.5458803176879883,3.2273054122924805,0.9954671859741211,5.09431266784668,-0.5001264214515686,-0.4397489130496979,-3.9077022075653076,4.795577526092529,2.318854570388794,2.937211275100708,-2.772951364517212,-0.8617789149284363,3.4949917793273926],[-0.3622686266899109,-0.49182820320129395,-0.4627847373485565,-0.795142650604248,0.016392704099416733,-0.12950016558170319,0.16717614233493805,-0.33066365122795105,-0.3085399270057678,-0.821603000164032,0.24330320954322815,-0.1948200762271881,0.07183998823165894,-0.8797106742858887,-0.4209328889846802,-0.08585549145936966],[0.05383097007870674,0.10456760972738266,0.200181245803833,0.30378448963165283,-0.9156789183616638,-0.2096414715051651,-1.4800150394439697,-0.07190021127462387,-0.1196179986000061,0.9914188981056213,-1.3388267755508423,-0.7517261505126953,-0.7151967287063599,0.650017499923706,0.04680066183209419,-0.716452419757843],[-0.34541478753089905,-0.027692602947354317,-0.23755106329917908,-0.15356659889221191,-0.08972037583589554,0.05555470287799835,-0.21344050765037537,-0.40506675839424133,-0.2606499195098877,-0.055300138890743256,-0.21101254224777222,-0.008199729956686497,-0.06741402298212051,-0.04676377773284912,-0.38546478748321533,-0.01095672883093357],[-0.7466299533843994,-0.06906288117170334,-1.022544503211975,-1.4186406135559082,1.0087835788726807,0.23893873393535614,2.1251795291900635,-0.43865612149238586,-0.2539130747318268,-2.15989351272583,1.7349988222122192,0.9156239628791809,1.295915961265564,-1.921066164970398,-0.7802018523216248,1.2634705305099487],[1.0087064504623413,0.8074497580528259,1.0634934902191162,1.5196903944015503,0.4460704028606415,0.5411149263381958,-0.19320213794708252,1.0812698602676392,0.817345380783081,1.4651764631271362,-0.2812317907810211,0.4347337782382965,-0.05270020663738251,1.5653988122940063,0.7755025029182434,0.09971475601196289],[-0.3624913692474365,-0.08565264940261841,-0.12068884074687958,-0.31164541840553284,-0.012467041611671448,-0.07933356612920761,0.10681672394275665,-0.37345725297927856,-0.22899435460567474,-0.5078865885734558,-0.07917405664920807,-0.1952652484178543,-0.15338018536567688,-0.3389953672885895,-0.2098636031150818,-0.01742330752313137],[-0.3289707601070404,-0.001423846697434783,-0.12037079781293869,0.05827131122350693,-0.13087710738182068,-0.11827602982521057,-0.3451134264469147,-0.31445199251174927,-0.1571570783853531,0.30933457612991333,-0.5472002029418945,-0.27156761288642883,-0.2887140214443207,-0.10748670995235443,-0.03865944966673851,-0.3364851772785187],[-0.10381577908992767,-0.03650085628032684,-0.3422565460205078,-0.11902669817209244,-0.18545928597450256,0.04585692659020424,0.05375511944293976,-0.2839503884315491,-0.1397399604320526,-0.3260713219642639,0.012115171179175377,0.07192379236221313,0.020524080842733383,-0.3229864537715912,-0.31364503502845764,-0.1485094279050827],[-2.315025568008423,-0.8263025879859924,-3.0590734481811523,-3.872025728225708,1.8549202680587769,0.4549933671951294,2.2394065856933594,-2.6040074825286865,-1.6615872383117676,-3.4917235374450684,1.7831339836120605,1.6858795881271362,2.1600184440612793,-4.214240550994873,-2.470254421234131,1.8429673910140991],[-0.05443047732114792,0.006523191928863525,-0.3700407147407532,-0.2605026960372925,-0.2143443077802658,-0.27789801359176636,0.06459666788578033,-0.4135017395019531,-0.05082343518733978,-0.6052412390708923,-0.03094230778515339,0.12122055143117905,0.1706678867340088,-0.4323863685131073,-0.23961830139160156,0.14165449142456055],[-0.40331339836120605,-0.04097796976566315,-0.35108330845832825,-0.20165236294269562,0.02774197608232498,-0.030128052458167076,-0.06627317517995834,-0.3752891421318054,-0.04955136403441429,-0.016666939482092857,-0.20034870505332947,0.1183231920003891,0.14664290845394135,-0.16263236105442047,-0.25140810012817383,0.09290377795696259],[-0.06107347086071968,0.10512372106313705,0.021506136283278465,0.20726041495800018,0.6175990700721741,0.1748621165752411,0.47562649846076965,-0.1445990353822708,-0.1200665608048439,-0.18434202671051025,0.7559616565704346,0.5422890186309814,0.5646616220474243,0.14744609594345093,-0.0390167236328125,0.5362484455108643]],"biases":[-0.1936904639005661,-0.42734286189079285,-1.4520139694213867,1.3290016651153564,-0.7108752727508545,-0.38212496042251587,-0.09642854332923889,0.33041006326675415,1.0759843587875366,-0.07044225931167603,-0.35744041204452515,-0.26540717482566833,-0.3864043056964874,-0.3352040648460388,-0.3469758927822113,0.33673378825187683]},{"weights":[[0.538482129573822,-2.1692256927490234,-6.683287620544434,-5.801453590393066,0.00994157511740923,-1.8587230443954468,0.5315060615539551,-2.1535892486572266,2.8842294216156006,0.5548094511032104,-0.06373459845781326,0.6388154625892639,-2.632463216781616,0.5987127423286438,0.7128554582595825,2.2817606925964355]],"biases":[1.9639840126037598]}],"inputLookup":{"plan":0},"inputLookupLength":1,"outputLookup":null,"outputLookupLength":0,"options":{"inputSize":0,"outputSize":0,"binaryThresh":0.5,"activation":"sigmoid","hiddenLayers":[16,16],"learningRate":0.3,"iterations":5000},"trainOpts":{"activation":"sigmoid","iterations":5000,"errorThresh":0.005,"log":false,"logPeriod":10,"leakyReluAlpha":0.01,"learningRate":0.3,"momentum":0.1,"callbackPeriod":10,"timeout":"Infinity","beta1":0.9,"beta2":0.999,"epsilon":1e-8}}