{"type":"NeuralNetwork","sizes":[1,16,16,1],"layers":[{"weights":[],"biases":[]},{"weights":[[2.869901657104492],[0.7487553954124451],[3.584226608276367],[4.3509063720703125],[-3.1266915798187256],[-0.7964344620704651],[-4.8099684715271],[2.8284363746643066],[1.9392549991607666],[4.952649116516113],[-4.4246039390563965],[-2.4932637214660645],[-3.1746280193328857],[4.855867862701416],[2.8107943534851074],[-3.2499747276306152]],"biases":[-0.8943918347358704,-0.11106468737125397,-1.0179426670074463,-1.0533215999603271,1.9678430557250977,0.18997327983379364,3.207803964614868,-0.6035622954368591,-0.47240495681762695,-2.071478843688965,3.1476259231567383,1.3859647512435913,1.6719571352005005,-1.301079511642456,-0.7237233519554138,2.073911190032959]},{"weights":[[-0.27193483710289,-0.10338683426380157,-0.34633469581604004,-0.48891592025756836,-0.030330833047628403,-0.029830915853381157,-0.011003028601408005,-0.13461072742938995,-0.06457119435071945,-0.6641824245452881,0.11739673465490341,-0.28045207262039185,0.0895819365978241,-0.3978509306907654,-0.1163223534822464,-0.13282276690006256],[0.5228309631347656,-0.16554893553256989,0.5250068306922913,0.4781646728515625,-1.1088111400604248,-0.24159179627895355,-1.426247239112854,0.305568665266037,0.05287296324968338,0.7920371890068054,-1.3638139963150024,-0.8276665806770325,-1.095147728919983,0.3124009966850281,0.14993374049663544,-0.9525195956230164],[0.7444605231285095,-0.36476874351501465,1.097806692123413,0.7614988684654236,-2.7857072353363037,-0.9843763709068298,-3.9379029273986816,0.5112423896789551,0.2621210217475891,2.1168012619018555,-3.8411264419555664,-2.2319087982177734,-2.521287441253662,0.9951587915420532,0.2951665222644806,-2.925910234451294],[-1.0984631776809692,0.3730476200580597,-1.359244704246521,-1.5459233522415161,3.22721529006958,0.9954201579093933,5.094192028045654,-0.5001611113548279,-0.439779132604599,-3.9077181816101074,4.795456409454346,2.3187789916992188,2.93713116645813,-2.7729949951171875,-0.8618095517158508,3.494899034500122],[-0.3622685670852661,-0.49182841181755066,-0.46278461813926697,-0.795142650604248,0.016392124816775322,-0.12950050830841064,0.1671755313873291,-0.3306637406349182,-0.3085400462150574,-0.8216028809547424,0.2433026134967804,-0.1948205828666687,0.07183939218521118,-0.8797106146812439,-0.4209328889846802,-0.08585606515407562],[0.05382639914751053,0.10456163436174393,0.2001764327287674,0.30377885699272156,-0.9156901240348816,-0.2096477597951889,-1.4800293445587158,-0.0719059631228447,-0.11962343752384186,0.9914175868034363,-1.3388406038284302,-0.7517358064651489,-0.715207040309906,0.6500124335289001,0.04679541662335396,-0.716464102268219],[-0.34540170431137085,-0.027697857469320297,-0.23753274977207184,-0.15354248881340027,-0.08975356072187424,0.05553620681166649,-0.2134714126586914,-0.4050542712211609,-0.2606445550918579,-0.05527979135513306,-0.21104279160499573,-0.0082320561632514,-0.06744934618473053,-0.04673677682876587,-0.3854522109031677,-0.010989882983267307],[-0.746567964553833,-0.06907007843255997,-1.0224665403366089,-1.4185562133789062,1.0086437463760376,0.2388836294412613,2.1250057220458984,-0.438605934381485,-0.2538830637931824,-2.159750461578369,1.734840989112854,0.915503978729248,1.2957719564437866,-1.9209649562835693,-0.780147135257721,1.2633274793624878],[1.0086963176727295,0.8074308633804321,1.0634846687316895,1.5196824073791504,0.44603344798088074,0.5410918593406677,-0.1932421624660492,1.0812571048736572,0.8173308372497559,1.4651734828948975,-0.28127169609069824,0.43469980359077454,-0.05273599922657013,1.5653926134109497,0.7754907608032227,0.09967733919620514],[-0.36248108744621277,-0.08566375821828842,-0.12067274749279022,-0.3116232454776764,-0.012512529268860817,-0.0793595165014267,0.10677239298820496,-0.37344837188720703,-0.2289932370185852,-0.5078662633895874,-0.0792175680398941,-0.19530881941318512,-0.15342746675014496,-0.3389695882797241,-0.20985430479049683,-0.017468899488449097],[-0.3289717733860016,-0.0014240487944334745,-0.12037213146686554,0.05826965346932411,-0.13087618350982666,-0.11827555298805237,-0.34511274099349976,-0.3144530653953552,-0.1571577936410904,0.3093334138393402,-0.547199547290802,-0.27156662940979004,-0.2887129783630371,-0.1074884831905365,-0.03866051509976387,-0.33648428320884705],[-0.10379845649003983,-0.036509305238723755,-0.34223195910453796,-0.11899412423372269,-0.18550750613212585,0.04583001509308815,0.05370965972542763,-0.2839341461658478,-0.13973352313041687,-0.32604318857192993,0.012070701457560062,0.07187703996896744,0.0204730536788702,-0.32294973731040955,-0.31362858414649963,-0.1485576629638672],[-2.3148818016052246,-0.8262877464294434,-3.058887481689453,-3.8717918395996094,1.854751706123352,0.45491349697113037,2.239259958267212,-2.6038639545440674,-1.661497950553894,-3.4915242195129395,1.7829947471618652,1.685713291168213,2.1598291397094727,-4.213981628417969,-2.4701123237609863,1.8428000211715698],[-0.05441920831799507,0.006508806720376015,-0.37002265453338623,-0.26047754287719727,-0.21440021693706512,-0.27792996168136597,0.06454180181026459,-0.4134924113750458,-0.050823234021663666,-0.6052175164222717,-0.03099619597196579,0.1211671531200409,0.17061001062393188,-0.4323568046092987,-0.2396082878112793,0.1415984332561493],[-0.40329280495643616,-0.04098697751760483,-0.35105425119400024,-0.20161408185958862,0.02768755331635475,-0.030158374458551407,-0.06632420420646667,-0.3752696216106415,-0.04954322800040245,-0.01663418859243393,-0.20039860904216766,0.11827031522989273,0.146585151553154,-0.16258932650089264,-0.25138843059539795,0.09284940361976624],[-0.06104731187224388,0.10514199733734131,0.021535955369472504,0.2072957307100296,0.617612361907959,0.17487162351608276,0.4756470322608948,-0.14457005262374878,-0.12004273384809494,-0.18432000279426575,0.7559823393821716,0.5422985553741455,0.5646709203720093,0.14748169481754303,-0.03898908570408821,0.5362621545791626]],"biases":[-0.1937314122915268,-0.4273591637611389,-1.4519597291946411,1.328927993774414,-0.7108758091926575,-0.38213521242141724,-0.09645386040210724,0.33035728335380554,1.0759466886520386,-0.07047983258962631,-0.35743993520736694,-0.26544448733329773,-0.38643592596054077,-0.33525070548057556,-0.3470175862312317,0.33675485849380493]},{"weights":[[0.5383471250534058,-2.1692237854003906,-6.683274269104004,-5.801316738128662,0.009820632636547089,-1.858718752861023,0.5314310193061829,-2.1533374786376953,2.884192705154419,0.5546926259994507,-0.06373120099306107,0.6387069225311279,-2.6323537826538086,0.5985614657402039,0.7127416133880615,2.2816977500915527]],"biases":[1.9638843536376953]}],"inputLookup":{"plan":0},"inputLookupLength":1,"outputLookup":null,"outputLookupLength":0,"options":{"inputSize":0,"outputSize":0,"binaryThresh":0.5,"activation":"sigmoid","hiddenLayers":[16,16],"learningRate":0.3,"iterations":5000},"trainOpts":{"activation":"sigmoid","iterations":5000,"errorThresh":0.005,"log":false,"logPeriod":10,"leakyReluAlpha":0.01,"learningRate":0.3,"momentum":0.1,"callbackPeriod":10,"timeout":"Infinity","beta1":0.9,"beta2":0.999,"epsilon":1e-8}}