{"type":"NeuralNetwork","sizes":[1,16,16,1],"layers":[{"weights":[],"biases":[]},{"weights":[[2.8668453693389893],[0.7476829886436462],[3.580336570739746],[4.346224784851074],[-3.124952554702759],[-0.7959266901016235],[-4.80820894241333],[2.8250057697296143],[1.9371310472488403],[4.949065208435059],[-4.422937870025635],[-2.491330146789551],[-3.172288417816162],[4.851001262664795],[2.807487726211548],[-3.2480921745300293]],"biases":[-0.8942265510559082,-0.1111992746591568,-1.017966628074646,-1.052945613861084,1.9679582118988037,0.18921932578086853,3.208489179611206,-0.6028348207473755,-0.47198164463043213,-2.0744292736053467,3.1479759216308594,1.3856557607650757,1.672225832939148,-1.301438570022583,-0.7230971455574036,2.0740716457366943]},{"weights":[[-0.2717663645744324,-0.10364735126495361,-0.34605273604393005,-0.4885181486606598,-0.031291499733924866,-0.03038310818374157,-0.011950824409723282,-0.13447657227516174,-0.0645885169506073,-0.663801908493042,0.11646494269371033,-0.2813674807548523,0.08859080076217651,-0.3973798453807831,-0.11617648601531982,-0.13378648459911346],[0.5226600170135498,-0.1657327115535736,0.5248211622238159,0.4779573082923889,-1.1090935468673706,-0.24176985025405884,-1.426580786705017,0.30536961555480957,0.05269090086221695,0.7919062376022339,-1.3641573190689087,-0.8279170393943787,-1.095401406288147,0.31220197677612305,0.14974720776081085,-0.9528098106384277],[0.7453321218490601,-0.3640705645084381,1.0987757444381714,0.7625604271888733,-2.7850825786590576,-0.9838510751724243,-3.9372639656066895,0.5121777653694153,0.2629310190677643,2.117767572402954,-3.84039044380188,-2.231334686279297,-2.5207784175872803,0.9962394833564758,0.2960718870162964,-2.9252805709838867],[-1.0989618301391602,0.3723267614841461,-1.359864354133606,-1.5467708110809326,3.225416660308838,0.9944851398468018,5.0917840003967285,-0.5008443593978882,-0.4403727352619171,-3.9080185890197754,4.793046951293945,2.3172738552093506,2.935530662536621,-2.773855447769165,-0.8624105453491211,3.493048906326294],[-0.362268328666687,-0.4918314814567566,-0.4627835750579834,-0.7951403260231018,0.016382981091737747,-0.12950605154037476,0.16716618835926056,-0.330663800239563,-0.30854105949401855,-0.8216008543968201,0.2432933896780014,-0.19482922554016113,0.07183009386062622,-0.8797077536582947,-0.42093273997306824,-0.08586541563272476],[0.05374280363321304,0.10444889217615128,0.20008882880210876,0.30367663502693176,-0.9159088730812073,-0.2097683548927307,-1.4803003072738647,-0.07201246917247772,-0.1197245642542839,0.99139803647995,-1.3391108512878418,-0.7519213557243347,-0.7154075503349304,0.6499221920967102,0.046698857098817825,-0.7166878581047058],[-0.3451426923274994,-0.027802689000964165,-0.23716962337493896,-0.1530642956495285,-0.09041339159011841,0.05516841635107994,-0.21408607065677643,-0.4048076570034027,-0.260538250207901,-0.054877012968063354,-0.2116440087556839,-0.008874685503542423,-0.0681510642170906,-0.04620082303881645,-0.38520318269729614,-0.011648795567452908],[-0.7453067302703857,-0.06919506192207336,-1.020879864692688,-1.416840672492981,1.005865454673767,0.2377963662147522,2.121551752090454,-0.4375784397125244,-0.2532624900341034,-2.1568639278411865,1.7317004203796387,0.9131184220314026,1.2929065227508545,-1.9189136028289795,-0.779029369354248,1.260482907295227],[1.0084935426712036,0.8070533275604248,1.0633071660995483,1.519518494606018,0.44529274106025696,0.5406312942504883,-0.1940436065196991,1.0810045003890991,0.817041277885437,1.4651129245758057,-0.2820705771446228,0.4340195059776306,-0.05345260724425316,1.5652660131454468,0.7752575874328613,0.0989283099770546],[-0.36227595806121826,-0.08588487654924393,-0.12035353481769562,-0.3111833930015564,-0.013415664434432983,-0.07987487316131592,0.1058928444981575,-0.3732723295688629,-0.2289714813232422,-0.5074626803398132,-0.08008132129907608,-0.19617393612861633,-0.15436609089374542,-0.3384583294391632,-0.20966942608356476,-0.018374057486653328],[-0.3289921283721924,-0.0014279036549851298,-0.12039849162101746,0.0582367479801178,-0.13085751235485077,-0.11826581507921219,-0.34509900212287903,-0.314473956823349,-0.1571718454360962,0.30931028723716736,-0.5471869707107544,-0.2715465724468231,-0.28869178891181946,-0.10752364993095398,-0.0386815145611763,-0.3364655673503876],[-0.1034545823931694,-0.0366775244474411,-0.341743141412735,-0.11834714561700821,-0.18646520376205444,0.045295000076293945,0.052807338535785675,-0.2836114466190338,-0.13960568606853485,-0.32548561692237854,0.011187801137566566,0.07094857096672058,0.01945951022207737,-0.32221999764442444,-0.31330084800720215,-0.14951473474502563],[-2.312009334564209,-0.8260058760643005,-3.055176019668579,-3.867109775543213,1.851358413696289,0.4532999098300934,2.236295461654663,-2.601005792617798,-1.6597235202789307,-3.4875431060791016,1.7801854610443115,1.6823638677597046,2.156010150909424,-4.2088165283203125,-2.4672751426696777,1.8394231796264648],[-0.054195452481508255,0.0062230974435806274,-0.3696634769439697,-0.2599776089191437,-0.21550989151000977,-0.27856454253196716,0.06345288455486298,-0.41330644488334656,-0.050819478929042816,-0.6047480702400208,-0.03206561878323555,0.12010712176561356,0.16946090757846832,-0.4317699074745178,-0.23940975964069366,0.14048556983470917],[-0.4028840959072113,-0.041166551411151886,-0.35047826170921326,-0.20085415244102478,0.026606306433677673,-0.03076116368174553,-0.06733760237693787,-0.37488338351249695,-0.04938214644789696,-0.01598561741411686,-0.20138996839523315,0.11721961200237274,0.1454375982284546,-0.16173511743545532,-0.25099676847457886,0.09176907688379288],[-0.06053384765982628,0.10550016909837723,0.022121667861938477,0.20799025893211365,0.6178677678108215,0.17505745589733124,0.47605156898498535,-0.14400088787078857,-0.11957507580518723,-0.183890238404274,0.7563877701759338,0.5424847602844238,0.5648529529571533,0.14818145334720612,-0.038446132093667984,0.5365309119224548]],"biases":[-0.1945442110300064,-0.4276702404022217,-1.450872540473938,1.3274688720703125,-0.7108836770057678,-0.38232967257499695,-0.0969577506184578,0.32932940125465393,1.0751924514770508,-0.07122606039047241,-0.3574298620223999,-0.26618608832359314,-0.38709601759910583,-0.3361777365207672,-0.34784767031669617,0.3371659219264984]},{"weights":[[0.5356621146202087,-2.1691975593566895,-6.683001518249512,-5.798591136932373,0.007408211939036846,-1.8586418628692627,0.529935359954834,-2.14825177192688,2.8834407329559326,0.5523697137832642,-0.06366787105798721,0.6365496516227722,-2.6301088333129883,0.5955533981323242,0.7104770541191101,2.2804219722747803]],"biases":[1.9618877172470093]}],"inputLookup":{"plan":0},"inputLookupLength":1,"outputLookup":null,"outputLookupLength":0,"options":{"inputSize":0,"outputSize":0,"binaryThresh":0.5,"activation":"sigmoid","hiddenLayers":[16,16],"learningRate":0.3,"iterations":5000},"trainOpts":{"activation":"sigmoid","iterations":5000,"errorThresh":0.005,"log":false,"logPeriod":10,"leakyReluAlpha":0.01,"learningRate":0.3,"momentum":0.1,"callbackPeriod":10,"timeout":"Infinity","beta1":0.9,"beta2":0.999,"epsilon":1e-8}}